<?xml version="1.0"?>
<opencv_storage>
<cascade>
  <stageType>BOOST</stageType>
  <featureType>HAAR</featureType>
  <height>24</height>
  <width>24</width>
  <stageParams>
    <boostType>GAB</boostType>
    <minHitRate>9.9500000476837158e-01</minHitRate>
    <maxFalseAlarm>5.0000000000000000e-01</maxFalseAlarm>
    <weightTrimRate>9.4999998807907104e-01</weightTrimRate>
    <maxDepth>1</maxDepth>
    <maxWeakCount>100</maxWeakCount></stageParams>
  <featureParams>
    <maxCatCount>0</maxCatCount>
    <featSize>1</featSize>
    <mode>BASIC</mode></featureParams>
  <stageNum>5</stageNum>
  <stages>
    <!-- stage 0 -->
    <_>
      <maxWeakCount>3</maxWeakCount>
      <stageThreshold>-6.3586574792861938e-01</stageThreshold>
      <weakClassifiers>
        <_>
          <internalNodes>
            0 -1 9 1.5394687652587891e-03</internalNodes>
          <leafValues>
            -6.7391306161880493e-01 7.8571426868438721e-01</leafValues></_>
        <_>
          <internalNodes>
            0 -1 5 4.0051311254501343e-02</internalNodes>
          <leafValues>
            -4.6806094050407410e-01 8.8371890783309937e-01</leafValues></_>
        <_>
          <internalNodes>
            0 -1 12 -3.1802450394025072e-05</internalNodes>
          <leafValues>
            -8.0395168066024780e-01 5.0610822439193726e-01</leafValues></_></weakClassifiers></_>
    <!-- stage 1 -->
    <_>
      <maxWeakCount>2</maxWeakCount>
      <stageThreshold>-2.5479334592819214e-01</stageThreshold>
      <weakClassifiers>
        <_>
          <internalNodes>
            0 -1 10 1.0247502475976944e-02</internalNodes>
          <leafValues>
            -6.3440859317779541e-01 7.0370370149612427e-01</leafValues></_>
        <_>
          <internalNodes>
            0 -1 14 -4.3791696953121573e-05</internalNodes>
          <leafValues>
            -9.3465280532836914e-01 3.7961524724960327e-01</leafValues></_></weakClassifiers></_>
    <!-- stage 2 -->
    <_>
      <maxWeakCount>3</maxWeakCount>
      <stageThreshold>1.7718331655487418e-03</stageThreshold>
      <weakClassifiers>
        <_>
          <internalNodes>
            0 -1 2 -1.4852365478873253e-02</internalNodes>
          <leafValues>
            8.1818181276321411e-01 -5.9183675050735474e-01</leafValues></_>
        <_>
          <internalNodes>
            0 -1 11 7.6922886364627630e-05</internalNodes>
          <leafValues>
            2.9655644297599792e-01 -1.</leafValues></_>
        <_>
          <internalNodes>
            0 -1 3 4.5683665666729212e-04</internalNodes>
          <leafValues>
            2.9705214500427246e-01 -8.9626681804656982e-01</leafValues></_></weakClassifiers></_>
    <!-- stage 3 -->
    <_>
      <maxWeakCount>3</maxWeakCount>
      <stageThreshold>-1.0978815555572510e+00</stageThreshold>
      <weakClassifiers>
        <_>
          <internalNodes>
            0 -1 7 -3.8041055202484131e-02</internalNodes>
          <leafValues>
            8.1818181276321411e-01 -5.9183675050735474e-01</leafValues></_>
        <_>
          <internalNodes>
            0 -1 13 3.3815184724517167e-04</internalNodes>
          <leafValues>
            4.3191069364547729e-01 -8.1702142953872681e-01</leafValues></_>
        <_>
          <internalNodes>
            0 -1 1 -3.7545157829299569e-04</internalNodes>
          <leafValues>
            -9.4831752777099609e-01 3.1097659468650818e-01</leafValues></_></weakClassifiers></_>
    <!-- stage 4 -->
    <_>
      <maxWeakCount>5</maxWeakCount>
      <stageThreshold>-8.4261691570281982e-01</stageThreshold>
      <weakClassifiers>
        <_>
          <internalNodes>
            0 -1 6 9.6398994326591492e-02</internalNodes>
          <leafValues>
            -5.5339807271957397e-01 1.</leafValues></_>
        <_>
          <internalNodes>
            0 -1 15 -1.6718944243621081e-04</internalNodes>
          <leafValues>
            -7.3978185653686523e-01 4.0450277924537659e-01</leafValues></_>
        <_>
          <internalNodes>
            0 -1 8 -3.6718585761263967e-04</internalNodes>
          <leafValues>
            5.9128093719482422e-01 -6.5511780977249146e-01</leafValues></_>
        <_>
          <internalNodes>
            0 -1 0 1.0843498632311821e-02</internalNodes>
          <leafValues>
            -5.0740993022918701e-01 7.3714810609817505e-01</leafValues></_>
        <_>
          <internalNodes>
            0 -1 4 2.6246430934406817e-04</internalNodes>
          <leafValues>
            4.6880608797073364e-01 -9.4725012779235840e-01</leafValues></_></weakClassifiers></_></stages>
  <features>
    <_>
      <rects>
        <_>
          2 16 11 6 -1.</_>
        <_>
          2 18 11 2 3.</_></rects>
      <tilted>0</tilted></_>
    <_>
      <rects>
        <_>
          2 22 7 2 -1.</_>
        <_>
          2 23 7 1 2.</_></rects>
      <tilted>0</tilted></_>
    <_>
      <rects>
        <_>
          5 15 9 4 -1.</_>
        <_>
          8 15 3 4 3.</_></rects>
      <tilted>0</tilted></_>
    <_>
      <rects>
        <_>
          7 0 4 2 -1.</_>
        <_>
          9 0 2 2 2.</_></rects>
      <tilted>0</tilted></_>
    <_>
      <rects>
        <_>
          10 0 6 1 -1.</_>
        <_>
          12 0 2 1 3.</_></rects>
      <tilted>0</tilted></_>
    <_>
      <rects>
        <_>
          12 5 12 10 -1.</_>
        <_>
          16 5 4 10 3.</_></rects>
      <tilted>0</tilted></_>
    <_>
      <rects>
        <_>
          12 8 12 8 -1.</_>
        <_>
          18 8 6 8 2.</_></rects>
      <tilted>0</tilted></_>
    <_>
      <rects>
        <_>
          12 9 12 8 -1.</_>
        <_>
          16 9 4 8 3.</_></rects>
      <tilted>0</tilted></_>
    <_>
      <rects>
        <_>
          12 17 3 1 -1.</_>
        <_>
          13 17 1 1 3.</_></rects>
      <tilted>0</tilted></_>
    <_>
      <rects>
        <_>
          14 9 2 4 -1.</_>
        <_>
          14 11 2 2 2.</_></rects>
      <tilted>0</tilted></_>
    <_>
      <rects>
        <_>
          18 11 4 8 -1.</_>
        <_>
          20 11 2 8 2.</_></rects>
      <tilted>0</tilted></_>
    <_>
      <rects>
        <_>
          20 1 2 2 -1.</_>
        <_>
          20 1 1 1 2.</_>
        <_>
          21 2 1 1 2.</_></rects>
      <tilted>0</tilted></_>
    <_>
      <rects>
        <_>
          20 18 2 4 -1.</_>
        <_>
          20 20 2 2 2.</_></rects>
      <tilted>0</tilted></_>
    <_>
      <rects>
        <_>
          22 0 2 6 -1.</_>
        <_>
          22 3 2 3 2.</_></rects>
      <tilted>0</tilted></_>
    <_>
      <rects>
        <_>
          22 22 2 1 -1.</_>
        <_>
          23 22 1 1 2.</_></rects>
      <tilted>0</tilted></_>
    <_>
      <rects>
        <_>
          23 14 1 9 -1.</_>
        <_>
          23 17 1 3 3.</_></rects>
      <tilted>0</tilted></_></features></cascade>
</opencv_storage>
